genomestart 1
trait 1 0 0 0 0 0 0 0 0
trait 2 0 0 0 0 0 0 0 0
trait 3 0 0 0 0 0 0 0 0
trait 4 0 0 0 0 0 0 0 0
trait 5 0 0 0 0 0 0 0 0
trait 6 0 0 0 0 0 0 0 0
trait 7 0 0 0 0 0 0 0 0
trait 8 0 0 0 0 0 0 0 0
trait 9 0 0 0 0 0 0 0 0
trait 10 0 0 0 0 0 0 0 0
trait 11 0 0 0 0 0 0 0 0
trait 12 0 0 0 0 0 0 0 0
trait 13 0 0 0 0 0 0 0 0
trait 14 0 0 0 0 0 0 0 0
trait 15 0 0 0 0 0 0 0 0
trait 16 0 0 0 0 0 0 0 0
trait 17 0 0 0 0 0 0 0 0
trait 18 0 0 0 0 0 0 0 0
trait 19 0 0 0 0 0 0 0 0
trait 20 0 0 0 0 0 0 0 0
trait 21 0 0 0 0 0 0 0 0
trait 22 0 0 0 0 0 0 0 0
trait 23 0 0 0 0 0 0 0 0
trait 24 0 0 0 0 0 0 0 0
trait 25 0 0 0 0 0 0 0 0
trait 26 0 0 0 0 0 0 0 0
trait 27 0 0 0 0 0 0 0 0
trait 28 0 0 0 0 0 0 0 0
trait 29 0 0 0 0 0 0 0 0
trait 30 0 0 0 0 0 0 0 0
trait 31 0 0 0 0 0 0 0 0
trait 32 0 0 0 0 0 0 0 0
trait 33 0 0 0 0 0 0 0 0
trait 34 0 0 0 0 0 0 0 0
trait 35 0 0 0 0 0 0 0 0
trait 36 0 0 0 0 0 0 0 0
trait 37 0 0 0 0 0 0 0 0
trait 38 0 0 0 0 0 0 0 0
trait 39 0 0 0 0 0 0 0 0
trait 40 0 0 0 0 0 0 0 0
trait 41 0 0 0 0 0 0 0 0
trait 42 0 0 0 0 0 0 0 0
trait 43 0 0 0 0 0 0 0 0
trait 44 0 0 0 0 0 0 0 0
trait 45 0 0 0 0 0 0 0 0
trait 46 0 0 0 0 0 0 0 0
trait 47 0 0 0 0 0 0 0 0
trait 48 0 0 0 0 0 0 0 0
trait 49 0 0 0 0 0 0 0 0
trait 50 0 0 0 0 0 0 0 0
trait 51 0 0 0 0 0 0 0 0
trait 52 0 0 0 0 0 0 0 0
trait 53 0 0 0 0 0 0 0 0
trait 54 0 0 0 0 0 0 0 0
node 1 0 1 3
node 2 0 1 1
node 3 0 1 1
node 4 0 1 1
node 5 0 1 1
node 6 0 1 1
node 7 0 1 1
node 8 0 1 1
node 9 0 1 1
node 10 0 1 0
node 11 0 1 0
node 12 0 1 0
node 13 0 0 2
node 14 0 0 2
node 15 0 0 2
node 16 0 0 2
node 17 0 0 2
node 18 0 0 2
node 19 0 0 2
node 20 0 0 2
node 21 0 0 2
gene 1 1 10 0.5 0 1 0 1
gene 2 1 11 0.5 0 2 0 1
gene 3 1 12 0.5 0 3 0 1
gene 4 2 10 0.5 0 4 0 1
gene 5 2 11 0.5 0 5 0 1
gene 6 2 12 0.5 0 6 0 1
gene 7 3 10 0.5 0 7 0 1
gene 8 3 11 0.5 0 8 0 1
gene 9 3 12 0.5 0 9 0 1
gene 10 4 10 0.5 0 10 0 1
gene 11 4 11 0.5 0 11 0 1
gene 12 4 12 0.5 0 12 0 1
gene 13 5 10 0.5 0 13 0 1
gene 14 5 11 0.5 0 14 0 1
gene 15 5 12 0.5 0 15 0 1
gene 16 6 10 0.5 0 16 0 1
gene 17 6 11 0.5 0 17 0 1
gene 18 6 12 0.5 0 18 0 1
gene 19 7 10 0.5 0 19 0 1
gene 20 7 11 0.5 0 20 0 1
gene 21 7 12 0.5 0 21 0 1
gene 22 8 10 0.5 0 22 0 1
gene 23 8 11 0.5 0 23 0 1
gene 24 8 12 0.5 0 24 0 1
gene 25 9 10 0.5 0 25 0 1
gene 26 9 11 0.5 0 26 0 1
gene 27 9 12 0.5 0 27 0 1
gene 28 10 13 0.5 0 28 0 1
gene 29 10 14 0.5 0 29 0 1
gene 30 10 15 0.5 0 30 0 1
gene 31 10 16 0.5 0 31 0 1
gene 32 10 17 0.5 0 32 0 1
gene 33 10 18 0.5 0 33 0 1
gene 34 10 19 0.5 0 34 0 1
gene 35 10 20 0.5 0 35 0 1
gene 36 10 21 0.5 0 36 0 1
gene 37 11 13 0.5 0 37 0 1
gene 38 11 14 0.5 0 38 0 1
gene 39 11 15 0.5 0 39 0 1
gene 40 11 16 0.5 0 40 0 1
gene 41 11 17 0.5 0 41 0 1
gene 42 11 18 0.5 0 42 0 1
gene 43 11 19 0.5 0 43 0 1
gene 44 11 20 0.5 0 44 0 1
gene 45 11 21 0.5 0 45 0 1
gene 46 12 13 0.5 0 46 0 1
gene 47 12 14 0.5 0 47 0 1
gene 48 12 15 0.5 0 48 0 1
gene 49 12 16 0.5 0 49 0 1
gene 50 12 17 0.5 0 50 0 1
gene 51 12 18 0.5 0 51 0 1
gene 52 12 19 0.5 0 52 0 1
gene 53 12 20 0.5 0 53 0 1
gene 54 12 21 0.5 0 54 0 1
genomeend 1
